<PMML xmlns="http://www.dmg.org/PMML-4_4" version="4.4">
  <Header/>
  <DataDictionary/>
  <Scorecard modelName="topLevel_pmml" functionName="regression" useReasonCodes="true" reasonCodeAlgorithm="pointsBelow" baselineScore="4" baselineMethod="other" isScorable="true">
    <MiningSchema/>
    <Output>
      <OutputField name="topLevel_output" dataType="string"/>
    </Output>
    <Characteristics/>
  </Scorecard>
</PMML>